__KINETIX_DEVICE__ __KINETIX_INLINE__ cfloat kinetix_conductivity(cfloat rcpMbar, cfloat lnT, cfloat lnT2, cfloat lnT3, cfloat lnT4, cfloat Xi[])
{
  const cfloat b0[53] = {-1.0486522803033549e+00, -1.8093252756632533e-01, 1.3887209687951242e-02, 1.2598650427215721e-01, -3.0962737015805281e-01, -3.3407883766830115e-01, 3.7388230304426277e-02, 1.1451416113077125e-03, 4.3536142777755422e-02, -4.8849226762443576e-01, -1.9238429052099384e-01, -9.8081603213013735e-02, -1.7705348902272947e-01, 4.4845125494908065e-02, 1.9692850177072702e-02, 7.9622652052144124e-02, 8.9829321320212971e-02, 9.1554067415378762e-02, -6.2495718451157012e-03, 8.6803568761548974e-02, 7.9141243503024747e-02, -2.0938090648018975e-01, -1.1373386745085512e-01, 6.0546977427220920e-02, 1.5167221149875590e-01, 1.0123972089460986e-01, 1.2508876479270054e-01, -3.6262314418067786e-02, 4.0714860187140836e-02, -5.4047918660742746e-02, 1.5243959708871154e-02, -2.0426210656867511e-01, -2.6871518611710171e-01, -2.6014458902771498e-01, 6.2034019011071279e-02, 5.4471125287067358e-02, 1.9841407036847383e-01, 6.3772635208624195e-02, -1.1252727288035146e-01, 1.1548341118093530e-01, -2.6535670232603597e-02, 1.1044333418356682e-01, 6.2566407663460721e-02, 1.1835013140013009e-01, 7.7157124819712264e-02, 1.3835493114876121e-01, 9.1308413193714980e-02, -2.1613264795421722e-02, 9.7596518656841616e-02, 1.1718634122922394e-01, 8.5236914015277929e-02, 1.1886735354158476e-01, -1.1609793202646507e-02};

  const cfloat b1[53] = {6.2275821504578899e-01, 8.9142972010604740e-02, -7.9773268898642394e-03, -7.5183113281471328e-02, 1.8790226393221099e-01, 2.0877096212873503e-01, -2.2260976345852831e-02, 1.6813284891273273e-03, -2.7603914568758377e-02, 2.9886054236226173e-01, 1.1955208898050551e-01, 6.7184041782835241e-02, 1.1612279506629702e-01, -5.0072691519694986e-03, -8.4087968551015795e-03, -4.6842884499381406e-02, -4.6769418804817720e-02, -4.1761203014825707e-02, 1.3209303188985151e-02, -3.8562396160934494e-02, -2.9712032321119929e-02, 1.2925504470701887e-01, 6.7954790047875163e-02, -3.0048993811253377e-02, -7.8602107484689807e-02, -4.8048284357872069e-02, -5.8705860103624802e-02, 2.0843732118719090e-02, -1.8586709129564165e-02, 3.6647405631541299e-02, -9.5831733175065041e-03, 1.2547240633463072e-01, 1.7397845853326749e-01, 1.7418416503859993e-01, -3.2703744839111620e-02, -2.9543539194675488e-02, -1.1879450609649966e-01, -3.7994582099664449e-02, 7.3031244101721099e-02, -6.9210231094383817e-02, 2.0847994525229306e-02, -5.6352607045724930e-02, -3.8290226113914430e-02, -6.9154444637266166e-02, -4.2912929763570244e-02, -7.9378510745525183e-02, -5.4318397153270928e-02, 1.6152342093674110e-02, -5.0379361567417784e-02, -5.9579987366787907e-02, -4.1843915385128563e-02, -5.8379697960443566e-02, 5.8635640257034480e-03};

  const cfloat b2[53] = {-1.3650986562478654e-01, -1.5094457237797246e-02, 1.9817193164213165e-03, 1.6766921358357775e-02, -4.2101293039304419e-02, -4.8495819224847185e-02, 4.9165213120044198e-03, -1.0436872799010253e-03, 6.7165774982137242e-03, -6.7715215305665294e-02, -2.7690529983734006e-02, -1.6912513942587006e-02, -2.8352761497326903e-02, -4.0397774016085923e-03, 1.1769402488683691e-03, 1.0059646805993637e-02, 8.7127963557725920e-03, 6.1327566182670093e-03, -5.3595179628418777e-03, 5.2460485812653342e-03, 2.2849742075129282e-03, -2.9829526818920257e-02, -1.5380805822365269e-02, 4.9343117103558334e-03, 1.4290216084808127e-02, 7.4345525553618889e-03, 8.9173960730823242e-03, -4.9703056650275646e-03, 2.5539168973544076e-03, -9.4146242212177558e-03, 2.4086263173042138e-03, -2.8282549505698723e-02, -4.1430264174700089e-02, -4.3233362622205500e-02, 6.2461312355929430e-03, 5.9654612534821424e-03, 2.6340647358772049e-02, 8.2509589345732305e-03, -1.7548851356446637e-02, 1.5624100651520567e-02, -5.9315630753466438e-03, 1.0128030688610803e-02, 8.1756760419595276e-03, 1.4765019513609166e-02, 8.6304424635081818e-03, 1.6703551558032558e-02, 1.1845104581580385e-02, -4.2508196671748018e-03, 8.9858539593024259e-03, 1.0428322724071945e-02, 6.9571732770818450e-03, 9.7573011528828048e-03, -1.0283541631210512e-03};

  const cfloat b3[53] = {1.3186450260289020e-02, 1.1553835063157181e-03, -2.0862211512413469e-04, -1.6427659417615390e-03, 4.1592974619873730e-03, 4.9524560046371379e-03, -4.6727515206582869e-04, 1.9343615856372664e-04, -7.1186257392258096e-04, 6.7650703266065280e-03, 2.8448436844805327e-03, 1.8692721293097215e-03, 3.0579224035413117e-03, 9.2206564935280125e-04, -3.9529154537952734e-05, -9.2726849956421831e-04, -6.7378852711335604e-04, -2.7067949229785690e-04, 7.9085885305920690e-04, -1.6091342900319893e-04, 2.2830746514433523e-04, 3.0568866896237648e-03, 1.5664335952822177e-03, -2.7526328138255282e-04, -1.0464178172937364e-03, -3.7004155623950388e-04, -4.2357077937754288e-04, 5.9513080517941005e-04, -6.7324588915811633e-05, 1.0767668055917060e-03, -2.5617716196525442e-04, 2.8098012640181214e-03, 4.3340568638320443e-03, 4.7020103841993541e-03, -4.9491994990345973e-04, -5.1825086051047130e-04, -2.5563492532086219e-03, -7.6710694431081415e-04, 1.8572847581697488e-03, -1.5624475017207095e-03, 7.2622471342225338e-04, -7.3690716533677788e-04, -6.9072254922087077e-04, -1.3560345599703139e-03, -7.3107053179101336e-04, -1.5186356879073311e-03, -1.1141365343521235e-03, 4.8936848827129612e-04, -6.2645669140057314e-04, -7.0651108996273772e-04, -4.2441424498761274e-04, -6.0873389917858660e-04, 8.1865331541674692e-05};

  const cfloat b4[53] = {-4.7094449908778558e-04, -3.2003134881705460e-05, 8.2984622017311570e-06, 6.0214788034405996e-05, -1.5196346790567243e-04, -1.8565452547374486e-04, 1.7045652934371057e-05, -1.0005323401543235e-05, 2.8156620650883087e-05, -2.5008452185353524e-04, -1.0827012099013502e-04, -7.5470108690303429e-05, -1.2116211344921168e-04, -5.0913341137883613e-05, -1.1426829316355656e-06, 3.1521567150197166e-05, 1.8280220980117273e-05, -1.6677703982796470e-06, -3.8077091907043026e-05, -6.3565004908305920e-06, -2.3933734378576135e-05, -1.1648756045078159e-04, -5.9289430248713285e-05, 2.5447337669013496e-06, 2.5631411960466702e-05, 8.1057522272342609e-07, -4.5577279150084753e-07, -2.6184292773003295e-05, -4.1070494518658978e-06, -4.4817603351346289e-05, 1.0133812476677937e-05, -1.0259198348479929e-04, -1.6580710109911348e-04, -1.8670021451279550e-04, 1.3971700126199966e-05, 1.6667015609184912e-05, 9.2396408681113529e-05, 2.6339970271717453e-05, -7.1917905125189042e-05, 5.8908060972451859e-05, -3.1470566555083327e-05, 1.8067183792868306e-05, 2.0522261460839600e-05, 4.5921008350888425e-05, 2.2406490407846509e-05, 5.1033236973572551e-05, 3.8718112158431527e-05, -2.0318035158731230e-05, 1.3892733508860378e-05, 1.4684965228294065e-05, 6.4652138312025750e-06, 1.0042448076995414e-05, -2.3880361109537114e-06};

  cfloat lambda_k, sum1=0., sum2=0.;
  for(unsigned int k=0; k<53; k++)
  {
    lambda_k = b0[k] + b1[k]*lnT + b2[k]*lnT2 + b3[k]*lnT3 + b4[k]*lnT4;
    sum1 += Xi[k]*lambda_k;
    sum2 += Xi[k]/lambda_k;
  }

  return 0.5*(sum1 + 1./sum2);

}